-0.6159815192222595
-0.22489388287067413
-0.31629136204719543
0.0
0.0
0.0
0.0
0.0
-0.33886483311653137
-0.231049045920372
-0.14786459505558014
0.0
0.0
0.0
0.0
0.0
-0.05603836104273796
-0.026559583842754364
-0.07146258652210236
0.0
0.0
0.0
0.0
0.0
0.2145431637763977
0.20060767233371735
0.30545440316200256
0.0
0.0
0.0
0.0
0.0
0.37317419052124023
0.24491655826568604
0.21867796778678894
0.0
0.0
0.0
0.0
0.0
-0.5041289329528809
0.04497923329472542
-0.3789408802986145
0.0
0.0
0.0
0.0
0.0
-0.7169407606124878
-0.2339194118976593
-0.5615898966789246
0.0
0.0
0.0
0.0
0.0
-1.377441644668579
-1.2912613153457642
-1.39274263381958
0.0
0.0
0.0
0.0
0.0
-0.23831428587436676
-0.23546162247657776
-0.1537867784500122
0.0
0.0
0.0
0.0
0.0
0.37768155336380005
0.20220524072647095
0.24730513989925385
0.0
0.0
0.0
0.0
0.0
-0.2792980670928955
0.2846817970275879
-0.3990563154220581
0.0
0.0
0.0
0.0
0.0
-0.35533520579338074
-0.04982339218258858
-0.33599522709846497
0.0
0.0
0.0
0.0
0.0
-1.001294732093811
-0.4090062379837036
-1.0634636878967285
0.0
0.0
0.0
0.0
0.0
-0.7881990075111389
-0.7768718004226685
-0.6385751962661743
0.0
0.0
0.0
0.0
0.0
0.1485898643732071
0.1355069875717163
0.11870476603507996
0.0
0.0
0.0
0.0
0.0
-0.3142997622489929
-0.11620395630598068
-0.4395228922367096
0.0
0.0
0.0
0.0
0.0
-0.31029951572418213
-0.024919576942920685
-0.3882518410682678
0.0
0.0
0.0
0.0
0.0
-0.6364312767982483
-0.3322790563106537
-0.7657210826873779
0.0
0.0
0.0
0.0
0.0
-0.4307197034358978
-0.5405108332633972
-0.543738842010498
0.0
0.0
0.0
0.0
0.0
0.16084352135658264
0.046778276562690735
0.1676461398601532
0.0
0.0
0.0
0.0
0.0
-0.2654016613960266
-0.1653040051460266
-0.558042585849762
0.0
0.0
0.0
0.0
0.0
-0.17797031998634338
-0.1434405893087387
-0.6119903326034546
0.0
0.0
0.0
0.0
0.0
-0.15249723196029663
-0.39823201298713684
-0.7426542639732361
0.0
0.0
0.0
0.0
0.0
0.2632693648338318
0.04811741039156914
0.0683676078915596
0.0
0.0
0.0
0.0
0.0
0.23726193606853485
0.21913309395313263
0.20130737125873566
0.0
0.0
0.0
0.0
0.0
-0.3421061336994171
-0.1178886815905571
-0.4317478537559509
0.0
0.0
0.0
0.0
0.0
-0.41656583547592163
-0.4520905017852783
-0.22593457996845245
0.0
0.0
0.0
0.0
0.0
-0.23998281359672546
-0.5608234405517578
0.07585018128156662
0.0
0.0
0.0
0.0
0.0
-0.6162461042404175
-0.4103328585624695
0.27329063415527344
0.0
0.0
0.0
0.0
0.0
-0.11704708635807037
-0.1464674472808838
-0.31663352251052856
0.0
0.0
0.0
0.0
0.0
-0.1418762356042862
-0.2328803688287735
-0.4346717596054077
0.0
0.0
0.0
0.0
0.0
-0.6182366013526917
-0.5860589742660522
-0.508928656578064
0.0
0.0
0.0
0.0
0.0
-0.6633908748626709
-0.39131787419319153
-0.247273787856102
0.0
0.0
0.0
0.0
0.0
-0.2818622589111328
-0.08888912200927734
0.1467266082763672
0.0
0.0
0.0
0.0
0.0
0.012401342391967773
-0.0158026572316885
-0.06333252787590027
0.0
0.0
0.0
0.0
0.0
0.2269473820924759
0.06492910534143448
0.07978682965040207
0.0
0.0
0.0
0.0
0.0
0.14254306256771088
0.047580987215042114
0.020008116960525513
0.0
0.0
0.0
0.0
0.0
0.09194447100162506
0.14509359002113342
0.2777419984340668
0.0
0.0
0.0
0.0
0.0
0.28770115971565247
0.3702407479286194
0.34826233983039856
0.0
0.0
0.0
0.0
0.0
0.2917652130126953
0.10039069503545761
0.09265811741352081
0.0
0.0
0.0
0.0
0.0
0.05095720663666725
-0.1456170231103897
0.034499846398830414
0.0
0.0
0.0
0.0
0.0
0.06729873269796371
0.07957566529512405
0.0995599627494812
0.0
0.0
0.0
0.0
0.0
0.1477041244506836
0.10678436607122421
0.2554120421409607
0.0
0.0
0.0
0.0
0.0
0.056730933487415314
-0.044937048107385635
0.1465204954147339
0.0
0.0
0.0
0.0
0.0
0.0067492094822227955
-0.14221681654453278
0.09430850297212601
0.0
0.0
0.0
0.0
0.0
-0.058887824416160583
-0.10949458926916122
0.09708122164011002
0.0
0.0
0.0
0.0
0.0
0.057328835129737854
-0.045237939804792404
0.05803286284208298
0.0
0.0
0.0
0.0
0.0
0.05912524834275246
-0.09113261103630066
0.11086225509643555
0.0
0.0
0.0
0.0
0.0
0.060178834944963455
-0.3044150173664093
-0.06201079860329628
0.0
0.0
0.0
0.0
0.0
-0.17277155816555023
-0.331425279378891
-0.18118280172348022
0.0
0.0
0.0
0.0
0.0
-0.08425538241863251
-0.3485186994075775
-0.29234936833381653
0.0
0.0
0.0
0.0
0.0
-0.2669372260570526
-0.23374196887016296
-0.04443911835551262
0.0
0.0
0.0
0.0
0.0
0.10752242803573608
0.1346846967935562
0.0025425576604902744
0.0
0.0
0.0
0.0
0.0
-0.022206105291843414
0.020867319777607918
-0.01245630532503128
0.0
0.0
0.0
0.0
0.0
-0.06495333462953568
-0.1944987177848816
-0.0875495970249176
0.0
0.0
0.0
0.0
0.0
-0.12277437001466751
-0.322968065738678
-0.42640334367752075
0.0
0.0
0.0
0.0
0.0
-0.599026083946228
-0.29663944244384766
-0.4459502100944519
0.0
0.0
0.0
0.0
0.0
0.17271608114242554
0.16457979381084442
0.2020195871591568
0.0
0.0
0.0
0.0
0.0
-0.09907542169094086
0.07246053963899612
-0.02242082729935646
0.0
0.0
0.0
0.0
0.0
-0.14350338280200958
-0.1907067894935608
-0.15927106142044067
0.0
0.0
0.0
0.0
0.0
-0.10910991579294205
-0.34137532114982605
-0.20477811992168427
0.0
0.0
0.0
0.0
0.0
-0.6770527958869934
-0.39777398109436035
-0.2947116494178772
0.0
0.0
0.0
0.0
0.0
0.23836833238601685
0.27260488271713257
0.22426429390907288
0.0
0.0
0.0
0.0
0.0
0.05541975423693657
0.21257314085960388
0.07316263765096664
0.0
0.0
0.0
0.0
0.0
0.026381436735391617
0.07427706569433212
0.15962855517864227
0.0
0.0
0.0
0.0
0.0
0.03718176856637001
-0.12537595629692078
-0.3752981722354889
0.0
0.0
0.0
0.0
0.0
-0.20391730964183807
-0.35637956857681274
-0.09738393127918243
0.0
0.0
0.0
0.0
0.0
0.3274822533130646
0.17918650805950165
0.1910756677389145
0.0
0.0
0.0
0.0
0.0
0.14905939996242523
0.22038191556930542
0.07961394637823105
0.0
0.0
0.0
0.0
0.0
-0.0906854122877121
-0.04282037913799286
-0.007368241902440786
0.0
0.0
0.0
0.0
0.0
-0.17859801650047302
-0.08334340900182724
-0.06565216928720474
0.0
0.0
0.0
0.0
0.0
-0.043642207980155945
-0.2566589117050171
-0.12942805886268616
0.0
0.0
0.0
0.0
0.0
0.17495808005332947
0.11082840710878372
0.08079136908054352
0.0
0.0
0.0
0.0
0.0
-0.08879217505455017
-0.07605548202991486
-0.01942872442305088
0.0
0.0
0.0
0.0
0.0
-0.10541593283414841
-0.21687094867229462
-0.22455061972141266
0.0
0.0
0.0
0.0
0.0
0.25824257731437683
-0.05380198359489441
-0.3478805124759674
0.0
0.0
0.0
0.0
0.0
0.07551336288452148
-0.1440614014863968
-0.45221927762031555
0.0
0.0
0.0
0.0
0.0
-0.002392570488154888
-0.15041618049144745
-0.6334617733955383
0.0
0.0
0.0
0.0
0.0
-0.0517766997218132
0.0072027756832540035
-0.5362480282783508
0.0
0.0
0.0
0.0
0.0
-0.03503406420350075
-0.0316329151391983
-0.2864198088645935
0.0
0.0
0.0
0.0
0.0
0.09136028587818146
-0.06249389052391052
-0.5071146488189697
0.0
0.0
0.0
0.0
0.0
0.02317267283797264
-0.13382041454315186
-0.44641798734664917
0.0
0.0
0.0
0.0
0.0
0.0989106222987175
-0.23130911588668823
-0.4688625633716583
0.0
0.0
0.0
0.0
0.0
0.06518560647964478
-0.12865550816059113
-0.32997599244117737
0.0
0.0
0.0
0.0
0.0
0.16981825232505798
0.06682146340608597
-0.328046590089798
0.0
0.0
0.0
0.0
0.0
-0.08548109233379364
-0.2099464386701584
-0.4294997453689575
0.0
0.0
0.0
0.0
0.0
-0.0028763965237885714
-0.3101128339767456
-0.4216640591621399
0.0
0.0
0.0
0.0
0.0
0.08611670136451721
-0.35380974411964417
-0.46233218908309937
0.0
0.0
0.0
0.0
0.0
0.03179750218987465
-0.22291168570518494
-0.5699344873428345
0.0
0.0
0.0
0.0
0.0
0.10378540307283401
-0.13738660514354706
-0.6431916356086731
0.0
0.0
0.0
0.0
0.0
-0.07015732675790787
-0.20514869689941406
-0.36627036333084106
0.0
0.0
0.0
0.0
0.0
-0.055395688861608505
-0.34046047925949097
-0.6987268924713135
0.0
0.0
0.0
0.0
0.0
-0.01547202654182911
-0.4138190448284149
-0.6225618124008179
0.0
0.0
0.0
0.0
0.0
0.0889485627412796
-0.3415631353855133
-0.6095221638679504
0.0
0.0
0.0
0.0
0.0
0.14127810299396515
-0.2554571330547333
-0.48752206563949585
0.0
0.0
0.0
0.0
0.0
0.14962893724441528
0.19471754133701324
0.18886925280094147
0.0
0.0
0.0
0.0
0.0
0.03556765615940094
-0.03899414464831352
-0.25754690170288086
0.0
0.0
0.0
0.0
0.0
0.011654038913547993
-0.19441017508506775
-0.30285537242889404
0.0
0.0
0.0
0.0
0.0
0.15273112058639526
-0.25936222076416016
-0.2979544997215271
0.0
0.0
0.0
0.0
0.0
0.16142606735229492
-0.20368224382400513
-0.15823432803153992
0.0
0.0
0.0
0.0
0.0
0.07945600152015686
-0.07615017145872116
0.23309549689292908
0.0
0.0
0.0
0.0
0.0
0.2398747354745865
-0.10125967860221863
-0.04391327500343323
0.0
0.0
0.0
0.0
0.0
0.4449479579925537
0.004636010155081749
-0.03814697265625
0.0
0.0
0.0
0.0
0.0
0.1410050392150879
-0.14364680647850037
0.3591246008872986
0.0
0.0
0.0
0.0
0.0
0.07867346704006195
-0.14407940208911896
0.24997501075267792
0.0
0.0
0.0
0.0
0.0
0.37798458337783813
-0.04478469118475914
0.14662986993789673
0.0
0.0
0.0
0.0
0.0
0.06425511091947556
-0.25071805715560913
-0.2785780131816864
0.0
0.0
0.0
0.0
0.0
-0.6577857732772827
-0.18535970151424408
-0.5376148819923401
0.0
0.0
0.0
0.0
0.0
-0.3589802086353302
-0.19048021733760834
-0.023128878325223923
0.0
0.0
0.0
0.0
0.0
0.07390718907117844
-0.30890825390815735
-0.04067137464880943
0.0
0.0
0.0
0.0
0.0
0.38637593388557434
0.39628443121910095
0.11524791270494461
0.0
0.0
0.0
0.0
0.0
-0.3992346525192261
-0.35606998205184937
-0.4562743902206421
0.0
0.0
0.0
0.0
0.0
-0.874744176864624
-0.08899138122797012
-0.6211839318275452
0.0
0.0
0.0
0.0
0.0
-0.2971612215042114
0.030658608302474022
-0.2903594672679901
0.0
0.0
0.0
0.0
0.0
-0.04646547883749008
0.00994034018367529
-0.06280305236577988
0.0
0.0
0.0
0.0
0.0
-0.039338119328022
0.057815875858068466
0.27955782413482666
0.0
0.0
0.0
0.0
0.0
-0.5008366107940674
-0.19611428678035736
-0.20786595344543457
0.0
0.0
0.0
0.0
0.0
-0.023638565093278885
0.06360536813735962
-0.04460219666361809
0.0
0.0
0.0
0.0
0.0
0.35578852891921997
-0.015322541818022728
0.34272292256355286
0.0
0.0
0.0
0.0
0.0
0.17844748497009277
-0.0785922035574913
0.1377076953649521
0.0
0.0
0.0
0.0
0.0
0.19469064474105835
0.15112966299057007
0.043113645166158676
0.0
0.0
0.0
0.0
0.0
-0.08869283646345139
-0.11913809180259705
-0.11463938653469086
0.0
0.0
0.0
0.0
0.0
0.24454957246780396
-0.35922324657440186
-0.11035933345556259
0.0
0.0
0.0
0.0
0.0
0.3669365346431732
0.12624749541282654
0.27245059609413147
0.0
0.0
0.0
0.0
0.0
0.20631101727485657
-0.17083963751792908
0.08279874175786972
0.0
0.0
0.0
0.0
0.0
0.01486134808510542
0.0288698673248291
0.0690583810210228
0.0
0.0
0.0
0.0
0.0
-0.002187575912103057
0.0698518231511116
0.09642552584409714
0.0
0.0
0.0
0.0
0.0
-0.0464843325316906
-0.08167576044797897
0.16483952105045319
0.0
0.0
0.0
0.0
0.0
-0.131153866648674
-0.003945221658796072
0.006418927572667599
0.0
0.0
0.0
0.0
0.0
0.031326912343502045
0.04035651311278343
0.016016295179724693
0.0
0.0
0.0
0.0
0.0
-0.11974801123142242
-0.04299711063504219
0.12317240983247757
0.0
0.0
0.0
0.0
0.0
-0.23021626472473145
-0.10844247788190842
0.07264267653226852
0.0
0.0
0.0
0.0
0.0
-0.28157931566238403
-0.02870831824839115
0.26373425126075745
0.0
0.0
0.0
0.0
0.0
-0.24489697813987732
-0.07731270045042038
0.17382681369781494
0.0
0.0
0.0
0.0
0.0
-0.050689421594142914
0.0050176940858364105
0.0282833743840456
0.0
0.0
0.0
0.0
0.0
-0.2492811381816864
0.008899212814867496
0.22317202389240265
0.0
0.0
0.0
0.0
0.0
-0.26990461349487305
-0.06450390815734863
0.1962502896785736
0.0
0.0
0.0
0.0
0.0
-0.29643264412879944
0.06348521262407303
0.30144742131233215
0.0
0.0
0.0
0.0
0.0
-0.17501235008239746
-0.016186829656362534
0.2328418344259262
0.0
0.0
0.0
0.0
0.0
-0.014209100045263767
0.0007015651790425181
0.13480398058891296
0.0
0.0
0.0
0.0
0.0
-0.16751231253147125
0.029475925490260124
0.06672406196594238
0.0
0.0
0.0
0.0
0.0
-0.22368057072162628
-0.09643382579088211
0.13851554691791534
0.0
0.0
0.0
0.0
0.0
-0.27091434597969055
0.01446998119354248
0.23080474138259888
0.0
0.0
0.0
0.0
0.0
-0.2523585557937622
-0.009089058265089989
0.23339013755321503
0.0
0.0
0.0
0.0
0.0
-0.08459142595529556
-0.10171692073345184
0.05305228382349014
0.0
0.0
0.0
0.0
0.0
-0.09182725846767426
0.01292883325368166
0.026953039690852165
0.0
0.0
0.0
0.0
0.0
-0.03601362556219101
-0.008065111003816128
0.11006277054548264
0.0
0.0
0.0
0.0
0.0
-0.1619301438331604
-0.10381463170051575
0.18536055088043213
0.0
0.0
0.0
0.0
0.0
-0.165143221616745
0.006941211875528097
0.14967013895511627
0.0
0.0
0.0
0.0
0.0
0.015546869486570358
-0.03538078814744949
0.051622845232486725
0.0
0.0
0.0
0.0
0.0
0.05114971101284027
-0.11017222702503204
-0.011115982197225094
0.0
0.0
0.0
0.0
0.0
-0.015073668211698532
0.0031847041100263596
-0.20355267822742462
0.0
0.0
0.0
0.0
0.0
-0.02528446540236473
0.12091100960969925
-0.33916226029396057
0.0
0.0
0.0
0.0
0.0
-0.416461706161499
0.007810238748788834
-0.5641878843307495
0.0
0.0
0.0
0.0
0.0
-0.20956744253635406
-0.2145315408706665
0.11412353068590164
0.0
0.0
0.0
0.0
0.0
0.05894256755709648
0.17755469679832458
-0.21893173456192017
0.0
0.0
0.0
0.0
0.0
-0.05155707523226738
0.15107609331607819
-0.029947657138109207
0.0
0.0
0.0
0.0
0.0
-0.164250910282135
0.2521328330039978
-0.08878066390752792
0.0
0.0
0.0
0.0
0.0
-0.03426147252321243
-0.10268637537956238
0.41495099663734436
0.0
0.0
0.0
0.0
0.0
0.017140816897153854
-0.721985399723053
0.6905385255813599
0.0
0.0
0.0
0.0
0.0
-0.1507076472043991
0.0596550889313221
-0.09128972887992859
0.0
0.0
0.0
0.0
0.0
-0.14360347390174866
-0.07340685278177261
0.06611867249011993
0.0
0.0
0.0
0.0
0.0
-0.10307630151510239
-0.0719229206442833
0.0979369506239891
0.0
0.0
0.0
0.0
0.0
-0.4895802438259125
0.19029086828231812
-0.1580914855003357
0.0
0.0
0.0
0.0
0.0
-0.44305241107940674
-0.2733181416988373
0.11265596002340317
0.0
0.0
0.0
0.0
0.0
-0.07942995429039001
-0.1599123775959015
-0.05678689107298851
0.0
0.0
0.0
0.0
0.0
-0.06104326620697975
-0.11288134008646011
-0.07763303071260452
0.0
0.0
0.0
0.0
0.0
0.31212499737739563
-0.16278113424777985
0.06179342418909073
0.0
0.0
0.0
0.0
0.0
0.3823154866695404
-0.4256134629249573
-0.12698453664779663
0.0
0.0
0.0
0.0
0.0
0.02752745896577835
0.04576856642961502
-0.1621444821357727
0.0
0.0
0.0
0.0
0.0
-0.03971505165100098
0.1908845156431198
0.04907497018575668
0.0
0.0
0.0
0.0
0.0
0.000882225576788187
-0.11360098421573639
-0.2540135085582733
0.0
0.0
0.0
0.0
0.0
0.2037530541419983
-0.15890894830226898
-0.22180990874767303
0.0
0.0
0.0
0.0
0.0
0.19824504852294922
0.035545531660318375
-0.19126346707344055
0.0
0.0
0.0
0.0
0.0
-0.3385217785835266
0.20270699262619019
-0.393343985080719
0.0
0.0
0.0
0.0
0.0
0.04548374190926552
-0.10419829934835434
-0.17114801704883575
0.0
0.0
0.0
0.0
0.0
0.13652412593364716
0.22290779650211334
0.11975324153900146
0.0
0.0
0.0
0.0
0.0
0.20711635053157806
0.3070198893547058
0.26292920112609863
0.0
0.0
0.0
0.0
0.0
0.2509128153324127
0.47082051634788513
0.26509353518486023
0.0
0.0
0.0
0.0
0.0
0.13099662959575653
0.08293812721967697
-0.05378531292080879
0.0
0.0
0.0
0.0
0.0
0.11041706055402756
-0.0804527997970581
-0.090379498898983
0.0
0.0
0.0
0.0
0.0
-0.009130551479756832
0.05453662574291229
0.11773990094661713
0.0
0.0
0.0
0.0
0.0
0.00047484200331382453
0.17730751633644104
0.15509392321109772
0.0
0.0
0.0
0.0
0.0
0.11021015793085098
0.30090153217315674
0.26119372248649597
0.0
0.0
0.0
0.0
0.0
0.06898194551467896
0.1200769916176796
-0.04776772856712341
0.0
0.0
0.0
0.0
0.0
-0.020601382479071617
-0.11433768272399902
0.04919956624507904
0.0
0.0
0.0
0.0
0.0
-0.25531327724456787
-0.2564743459224701
-0.07254992425441742
0.0
0.0
0.0
0.0
0.0
-0.3897477686405182
-0.22627022862434387
-0.21581819653511047
0.0
0.0
0.0
0.0
0.0
-0.17499126493930817
-0.0656941756606102
-0.16706497967243195
0.0
0.0
0.0
0.0
0.0
-0.044975753873586655
-0.16232270002365112
-0.1206025704741478
0.0
0.0
0.0
0.0
0.0
-0.0036205220967531204
0.026506150141358376
0.018635515123605728
0.0
0.0
0.0
0.0
0.0
-0.20751824975013733
-0.10459009557962418
-0.11373014003038406
0.0
0.0
0.0
0.0
0.0
-0.1460135132074356
-0.2014559805393219
-0.25830960273742676
0.0
0.0
0.0
0.0
0.0
-0.07730519771575928
-0.18119096755981445
-0.10577660799026489
0.0
0.0
0.0
0.0
0.0
0.04611124470829964
0.058985549956560135
-0.05915449932217598
0.0
0.0
0.0
0.0
0.0
0.03226616606116295
0.10565778613090515
0.019364122301340103
0.0
0.0
0.0
0.0
0.0
0.017521191388368607
0.0450371615588665
-0.02209903486073017
0.0
0.0
0.0
0.0
0.0
0.0019327671034261584
-0.007747355382889509
-0.05990179255604744
0.0
0.0
0.0
0.0
0.0
-0.06373592466115952
-0.00880445633083582
-0.10036243498325348
0.0
0.0
0.0
0.0
0.0
0.05213463678956032
0.10572951287031174
-0.05861968919634819
0.0
0.0
0.0
0.0
0.0
-0.16565926373004913
-0.10304710268974304
-0.2939899265766144
0.0
0.0
0.0
0.0
0.0
-0.4778769314289093
0.4754638373851776
-0.18688718974590302
0.0
0.0
0.0
0.0
0.0
-0.06955837458372116
0.3170921802520752
0.1384231299161911
0.0
0.0
0.0
0.0
0.0
0.05692407488822937
-0.06270334124565125
0.1611364781856537
0.0
0.0
0.0
0.0
0.0
-0.6193386316299438
0.3143884539604187
-0.4619363844394684
0.0
0.0
0.0
0.0
0.0
-0.36279991269111633
0.1186102032661438
-0.13417379558086395
0.0
0.0
0.0
0.0
0.0
-0.49022695422172546
0.3497152030467987
-0.4963860809803009
0.0
0.0
0.0
0.0
0.0
-0.3230777680873871
-0.06989670544862747
-0.1815948337316513
0.0
0.0
0.0
0.0
0.0
-0.040481094270944595
-0.23578724265098572
0.4690779447555542
0.0
0.0
0.0
0.0
0.0
-0.06014483794569969
-0.05825570598244667
0.0570560023188591
0.0
0.0
0.0
0.0
0.0
-0.2466789186000824
-0.2071790248155594
0.4596767723560333
0.0
0.0
0.0
0.0
0.0
-0.3743356466293335
0.024240786209702492
-0.04470339044928551
0.0
0.0
0.0
0.0
0.0
-0.38252365589141846
-0.1565690040588379
0.031370438635349274
0.0
0.0
0.0
0.0
0.0
0.09698645025491714
-0.33960866928100586
0.2522311210632324
0.0
0.0
0.0
0.0
0.0
-0.29966530203819275
0.0838373675942421
-0.4726961851119995
0.0
0.0
0.0
0.0
0.0
0.07927267253398895
-0.7772760987281799
0.440172016620636
0.0
0.0
0.0
0.0
0.0
-0.0901489332318306
-0.28056207299232483
-0.08259863406419754
0.0
0.0
0.0
0.0
0.0
0.10747536271810532
-0.3919770121574402
0.16212110221385956
0.0
0.0
0.0
0.0
0.0
0.19441942870616913
-0.45354580879211426
0.47914981842041016
0.0
0.0
0.0
0.0
0.0
0.05796865373849869
-0.3175630569458008
0.22533677518367767
0.0
0.0
0.0
0.0
0.0
0.047431569546461105
-0.18561168015003204
0.1473226398229599
0.0
0.0
0.0
0.0
0.0
0.1567588746547699
-0.08600205183029175
-0.28992733359336853
0.0
0.0
0.0
0.0
0.0
0.43500804901123047
-0.37957215309143066
-0.03645918145775795
0.0
0.0
0.0
0.0
0.0
0.1770516037940979
-0.26189541816711426
0.13479748368263245
0.0
0.0
0.0
0.0
0.0
0.04527145251631737
-0.07779350131750107
-0.17284543812274933
0.0
0.0
0.0
0.0
0.0
-0.06678340584039688
0.06951700896024704
-0.012161852791905403
0.0
0.0
0.0
0.0
0.0
-0.029681816697120667
-0.05928991362452507
-0.22265927493572235
0.0
0.0
0.0
0.0
0.0
-0.1125636100769043
-0.23179997503757477
0.03939376026391983
0.0
0.0
0.0
0.0
0.0
-0.2754402160644531
-0.0742408037185669
0.1610974222421646
0.0
0.0
0.0
0.0
0.0
0.16668206453323364
-0.3587397336959839
0.27637365460395813
0.0
0.0
0.0
0.0
0.0
-0.05303168669342995
-0.3062037527561188
-0.07855869084596634
0.0
0.0
0.0
0.0
0.0
0.2127935141324997
-0.07069706171751022
-0.028332969173789024
0.0
0.0
0.0
0.0
0.0
0.22435443103313446
-0.05568337440490723
-0.20166899263858795
0.0
0.0
0.0
0.0
0.0
-0.1332540065050125
0.029771625995635986
-0.2550337016582489
0.0
0.0
0.0
0.0
0.0
-0.37849950790405273
-0.28794044256210327
0.10888811945915222
0.0
0.0
0.0
0.0
0.0
0.046739231795072556
-0.2314937859773636
-0.30526453256607056
0.0
0.0
0.0
0.0
0.0
0.1284005492925644
0.3531767725944519
0.13716363906860352
0.0
0.0
0.0
0.0
0.0
0.40842026472091675
0.45077869296073914
0.05235913395881653
0.0
0.0
0.0
0.0
0.0
0.21181076765060425
0.2604134976863861
-0.3821212947368622
0.0
0.0
0.0
0.0
0.0
-0.6007128953933716
-0.40043511986732483
0.044665731489658356
0.0
0.0
0.0
0.0
0.0
0.312922865152359
-0.22445036470890045
-0.2696196436882019
0.0
0.0
0.0
0.0
0.0
-0.2004125416278839
0.021982230246067047
-0.24056121706962585
0.0
0.0
0.0
0.0
0.0
-0.11185751110315323
0.1986282914876938
-0.2621469497680664
0.0
0.0
0.0
0.0
0.0
0.43654099106788635
0.4495986998081207
0.13594597578048706
0.0
0.0
0.0
0.0
0.0
-0.29252204298973083
-0.04949473962187767
0.14148962497711182
0.0
0.0
0.0
0.0
0.0
0.25943559408187866
-0.26299580931663513
-0.17282475531101227
0.0
0.0
0.0
0.0
0.0
-0.442777544260025
-0.33357053995132446
-0.2182174026966095
0.0
0.0
0.0
0.0
0.0
-0.4784722626209259
-0.19982388615608215
-0.25295719504356384
0.0
0.0
0.0
0.0
0.0
0.027111560106277466
0.39185261726379395
-0.4906139373779297
0.0
0.0
0.0
0.0
0.0
-0.28367558121681213
0.46268537640571594
-0.20366515219211578
0.0
0.0
0.0
0.0
0.0
-0.2151324450969696
-0.117568738758564
-0.008795792236924171
0.0
0.0
0.0
0.0
0.0
-0.262407124042511
-0.395759642124176
-0.09186406433582306
0.0
0.0
0.0
0.0
0.0
-0.1366327852010727
-0.27850669622421265
-0.22718864679336548
0.0
0.0
0.0
0.0
0.0
0.14621827006340027
-0.1364823877811432
-0.19400127232074738
0.0
0.0
0.0
0.0
0.0
0.34999072551727295
-0.13003075122833252
-0.19048172235488892
0.0
0.0
0.0
0.0
0.0
-0.1188948005437851
-0.17567671835422516
0.1256917119026184
0.0
0.0
0.0
0.0
0.0
-0.11302368342876434
-0.26310402154922485
0.08684737235307693
0.0
0.0
0.0
0.0
0.0
-0.19637490808963776
-0.24357512593269348
-0.12199964374303818
0.0
0.0
0.0
0.0
0.0
-0.07670146226882935
-0.5049645900726318
-0.1780511438846588
0.0
0.0
0.0
0.0
0.0
0.44834673404693604
-0.20319314301013947
-0.2103804051876068
0.0
0.0
0.0
0.0
0.0
-0.04498031735420227
-0.24788208305835724
0.255180299282074
0.0
0.0
0.0
0.0
0.0
0.3227037787437439
-0.09920739382505417
0.2318105697631836
0.0
0.0
0.0
0.0
0.0
-0.08139872550964355
-0.29952678084373474
0.0020067652221769094
0.0
0.0
0.0
0.0
0.0
-0.3492533266544342
-0.24552449584007263
-0.1253158450126648
0.0
0.0
0.0
0.0
0.0
-0.067261703312397
-0.184316024184227
-0.18598884344100952
0.0
0.0
0.0
0.0
0.0
0.10893546044826508
-0.24525786936283112
0.28833678364753723
0.0
0.0
0.0
0.0
0.0
0.1356857866048813
-0.306861937046051
0.23850205540657043
0.0
0.0
0.0
0.0
0.0
-0.296652227640152
-0.24243593215942383
-0.014241887256503105
0.0
0.0
0.0
0.0
0.0
-0.46287351846694946
-0.2824881672859192
-0.16599231958389282
0.0
0.0
0.0
0.0
0.0
-0.3399960398674011
-0.24237887561321259
-0.1460036337375641
0.0
0.0
0.0
0.0
0.0
0.28657615184783936
-0.12475904822349548
0.23737920820713043
0.0
0.0
0.0
0.0
0.0
0.07974023371934891
-0.37190189957618713
0.05768425762653351
0.0
0.0
0.0
0.0
0.0
-0.18769530951976776
-0.3027796447277069
-0.08168939501047134
0.0
0.0
0.0
0.0
0.0
-0.40660008788108826
-0.24877895414829254
-0.11103145033121109
0.0
0.0
0.0
0.0
0.0
-0.37592843174934387
-0.21750420331954956
-0.08402974903583527
0.0
0.0
0.0
0.0
0.0
-0.6460015773773193
0.3126925230026245
-0.4039691984653473
0.0
0.0
0.0
0.0
0.0
-0.8436722159385681
-0.031654149293899536
0.017061082646250725
0.0
0.0
0.0
0.0
0.0
-0.33033111691474915
-0.5629585981369019
0.48975491523742676
0.0
0.0
0.0
0.0
0.0
-0.007697679102420807
-0.5761657357215881
0.47272300720214844
0.0
0.0
0.0
0.0
0.0
0.064497210085392
-0.15838046371936798
-0.14172036945819855
0.0
0.0
0.0
0.0
0.0
-0.3040863275527954
0.27661335468292236
-0.13900300860404968
0.0
0.0
0.0
0.0
0.0
-0.3479972779750824
-0.06741742044687271
0.26620498299598694
0.0
0.0
0.0
0.0
0.0
-0.3185674250125885
-0.44038641452789307
0.3269515633583069
0.0
0.0
0.0
0.0
0.0
0.03514785319566727
-0.42785486578941345
0.2488524615764618
0.0
0.0
0.0
0.0
0.0
0.2739235758781433
-0.07384418696165085
-0.23194989562034607
0.0
0.0
0.0
0.0
0.0
0.0864831954240799
0.3184279203414917
-0.3088376224040985
0.0
0.0
0.0
0.0
0.0
-0.3748006224632263
0.2905055582523346
0.061600763350725174
0.0
0.0
0.0
0.0
0.0
-0.4437773823738098
-0.33674684166908264
0.11911724507808685
0.0
0.0
0.0
0.0
0.0
0.1846955269575119
-0.5007005929946899
-0.16717803478240967
0.0
0.0
0.0
0.0
0.0
0.3346060514450073
-0.08603760600090027
-0.621863603591919
0.0
0.0
0.0
0.0
0.0
-0.07571139931678772
0.4620426297187805
-0.3124214708805084
0.0
0.0
0.0
0.0
0.0
-0.2592116892337799
0.4239221215248108
-0.1443290412425995
0.0
0.0
0.0
0.0
0.0
-0.4745371341705322
0.0550655797123909
0.047306742519140244
0.0
0.0
0.0
0.0
0.0
0.24530431628227234
-0.5832061767578125
-0.05686447396874428
0.0
0.0
0.0
0.0
0.0
0.3695666491985321
-0.23203402757644653
-0.07854074239730835
0.0
0.0
0.0
0.0
0.0
-0.3245944380760193
0.20030371844768524
-0.3266272246837616
0.0
0.0
0.0
0.0
0.0
-0.1412239521741867
-0.4336824119091034
-0.1988898366689682
0.0
0.0
0.0
0.0
0.0
-0.0920897051692009
-0.6703290343284607
-0.305176317691803
0.0
0.0
0.0
0.0
0.0
0.11126492917537689
-0.567791223526001
-0.02797910012304783
0.0
0.0
0.0
0.0
0.0
0.22334642708301544
-0.12516185641288757
-0.26785409450531006
0.0
0.0
0.0
0.0
0.0
0.2364286184310913
-0.1569536328315735
0.3043043315410614
0.0
0.0
0.0
0.0
0.0
0.12656250596046448
-0.45686402916908264
0.35362571477890015
0.0
0.0
0.0
0.0
0.0
-0.1636296957731247
-0.2760295271873474
0.22952811419963837
0.0
0.0
0.0
0.0
0.0
-0.0734800323843956
0.10437268018722534
0.011477374471724033
0.0
0.0
0.0
0.0
0.0
0.2277487963438034
0.22223670780658722
0.09367037564516068
0.0
0.0
0.0
0.0
0.0
0.22447162866592407
-0.36923593282699585
0.1010398343205452
0.0
0.0
0.0
0.0
0.0
0.06963587552309036
-0.6473431587219238
0.3203245997428894
0.0
0.0
0.0
0.0
0.0
-0.3651338219642639
-0.38625288009643555
0.10482724756002426
0.0
0.0
0.0
0.0
0.0
-0.7699753046035767
0.15146341919898987
-0.25087395310401917
0.0
0.0
0.0
0.0
0.0
-0.3912600576877594
-0.14398345351219177
-0.3235950171947479
0.0
0.0
0.0
0.0
0.0
0.23855243623256683
-0.5440676808357239
0.18096470832824707
0.0
0.0
0.0
0.0
0.0
0.12550222873687744
-0.8396981954574585
0.35943281650543213
0.0
0.0
0.0
0.0
0.0
-0.408655047416687
-0.237261563539505
0.0351121686398983
0.0
0.0
0.0
0.0
0.0
-0.93040531873703
-0.11914104223251343
0.039006203413009644
0.0
0.0
0.0
0.0
0.0
-0.9808695912361145
-0.24094261229038239
-0.32722070813179016
0.0
0.0
0.0
0.0
0.0
0.43289312720298767
-0.49030613899230957
-0.22985173761844635
0.0
0.0
0.0
0.0
0.0
0.15199539065361023
-0.8078406453132629
0.0937684178352356
0.0
0.0
0.0
0.0
0.0
-0.03545786440372467
-0.5557408332824707
-0.09231790900230408
0.0
0.0
0.0
0.0
0.0
-0.43906041979789734
-0.1883179098367691
-0.15556450188159943
0.0
0.0
0.0
0.0
0.0
-0.4719967544078827
0.036295995116233826
-0.08311718702316284
0.0
0.0
0.0
0.0
0.0
0.3572041094303131
-0.25010478496551514
-0.4569634199142456
0.0
0.0
0.0
0.0
0.0
0.058761291205883026
-0.13308222591876984
-0.09812936186790466
0.0
0.0
0.0
0.0
0.0
0.13718566298484802
-0.35922273993492126
-0.036428745836019516
0.0
0.0
0.0
0.0
0.0
0.13764801621437073
-0.6529867053031921
-0.2562354505062103
0.0
0.0
0.0
0.0
0.0
0.16095201671123505
-0.2993168234825134
-0.3606135845184326
0.0
0.0
0.0
0.0
0.0
-0.03691391274333
-0.2640911638736725
-0.38732483983039856
0.0
0.0
0.0
0.0
0.0
-0.1758919209241867
-0.2710990607738495
-0.16676300764083862
0.0
0.0
0.0
0.0
0.0
-0.007441839203238487
-0.18181198835372925
-0.11560150980949402
0.0
0.0
0.0
0.0
0.0
-0.20339065790176392
-0.37507688999176025
-0.17130047082901
0.0
0.0
0.0
0.0
0.0
0.07314246147871017
-0.03520400822162628
0.04642175883054733
0.0
0.0
0.0
0.0
0.0
0.125080406665802
0.4114207625389099
0.40436363220214844
0.0
0.0
0.0
0.0
0.0
-0.10254828631877899
0.013446600176393986
0.15522226691246033
0.0
0.0
0.0
0.0
0.0
-0.09141808748245239
0.06901326775550842
0.1599431186914444
0.0
0.0
0.0
0.0
0.0
0.034914638847112656
-0.12040293961763382
0.10152580589056015
0.0
0.0
0.0
0.0
0.0
-0.03732651099562645
0.054968126118183136
0.004886264447122812
0.0
0.0
0.0
0.0
0.0
-0.28973671793937683
-0.09158026427030563
-0.0609486848115921
0.0
0.0
0.0
0.0
0.0
-0.20564724504947662
-0.1995025873184204
0.058033280074596405
0.0
0.0
0.0
0.0
0.0
-0.18407654762268066
-0.18960563838481903
-0.20121856033802032
0.0
0.0
0.0
0.0
0.0
-0.21341381967067719
-0.1549106240272522
-0.2737269699573517
0.0
0.0
0.0
0.0
0.0
-0.32718542218208313
-0.24150662124156952
-0.18325108289718628
0.0
0.0
0.0
0.0
0.0
0.056962594389915466
-0.16582804918289185
0.051744405180215836
0.0
0.0
0.0
0.0
0.0
-0.21981056034564972
-0.23403871059417725
-0.15034402906894684
0.0
0.0
0.0
0.0
0.0
-0.02715184912085533
-0.15427513420581818
-0.2514897286891937
0.0
0.0
0.0
0.0
0.0
-0.12331648916006088
-0.1660633385181427
-0.04224777594208717
0.0
0.0
0.0
0.0
0.0
-0.09843956679105759
0.09902990609407425
0.10694891214370728
0.0
0.0
0.0
0.0
0.0
0.13861608505249023
-0.3221031725406647
-0.11906881630420685
0.0
0.0
0.0
0.0
0.0
0.1332654356956482
-0.044931840151548386
-0.1866447776556015
0.0
0.0
0.0
0.0
0.0
0.12266883254051208
0.08167394995689392
-0.05286288261413574
0.0
0.0
0.0
0.0
0.0
-0.09174827486276627
0.009192529134452343
-0.12248943746089935
0.0
0.0
0.0
0.0
0.0
-0.03191562369465828
0.15565542876720428
-0.1580679714679718
0.0
0.0
0.0
0.0
0.0
0.1528596580028534
0.07667486369609833
-0.3265657424926758
0.0
0.0
0.0
0.0
0.0
0.14107421040534973
0.045346103608608246
-0.3268822729587555
0.0
0.0
0.0
0.0
0.0
0.07906224578619003
-0.071881502866745
-0.20712362229824066
0.0
0.0
0.0
0.0
0.0
-0.09308569878339767
-0.13319651782512665
-0.16197516024112701
0.0
0.0
0.0
0.0
0.0
-0.1141446977853775
-0.07647674530744553
-0.11644444614648819
0.0
0.0
0.0
0.0
0.0
0.3007217049598694
-0.039894215762615204
-0.17581111192703247
0.0
0.0
0.0
0.0
0.0
0.3132953643798828
0.014716015197336674
-0.16805434226989746
0.0
0.0
0.0
0.0
0.0
0.19011032581329346
-0.09618792682886124
-0.23590563237667084
0.0
0.0
0.0
0.0
0.0
-0.03252768889069557
-0.05502452328801155
-0.12821295857429504
0.0
0.0
0.0
0.0
0.0
-0.11241638660430908
0.022616975009441376
-0.1001545786857605
0.0
0.0
0.0
0.0
0.0
0.2790835201740265
-0.01696448028087616
-0.16345492005348206
0.0
0.0
0.0
0.0
0.0
0.2871549427509308
0.01456212718039751
-0.024949120357632637
0.0
0.0
0.0
0.0
0.0
0.12531651556491852
-0.02573332004249096
-0.12329041957855225
0.0
0.0
0.0
0.0
0.0
-0.026300523430109024
-0.04577472060918808
-0.1156332790851593
0.0
0.0
0.0
0.0
0.0
-0.07054442167282104
0.0675603374838829
0.03088967874646187
0.0
0.0
0.0
0.0
0.0
0.05776730552315712
-0.13426214456558228
-0.2657560408115387
0.0
0.0
0.0
0.0
0.0
0.10537152737379074
-0.012483657337725163
-0.07816743105649948
0.0
0.0
0.0
0.0
0.0
0.03254563733935356
-0.034383147954940796
-0.03028687834739685
0.0
0.0
0.0
0.0
0.0
-0.0892186164855957
0.014189614914357662
-0.05642501264810562
0.0
0.0
0.0
0.0
0.0
-0.14322826266288757
0.07896647602319717
-0.1741199642419815
0.0
0.0
0.0
0.0
0.0
-0.15483920276165009
-0.16792064905166626
-0.2321862131357193
0.0
0.0
0.0
0.0
0.0
-0.07172947376966476
-0.11599508672952652
-0.135320246219635
0.0
0.0
0.0
0.0
0.0
-0.10791204869747162
-0.07894844561815262
-0.12060666084289551
0.0
0.0
0.0
0.0
0.0
-0.266219824552536
-0.043269649147987366
-0.10389137268066406
0.0
0.0
0.0
0.0
0.0
-0.2854894995689392
-0.033770181238651276
-0.09234431385993958
0.0
0.0
0.0
0.0
0.0
0.24991175532341003
0.13710357248783112
0.14436107873916626
0.0
0.0
0.0
0.0
0.0
0.2287483811378479
0.07980959117412567
0.08078296482563019
0.0
0.0
0.0
0.0
0.0
-0.0229748897254467
0.02600676193833351
0.05491948872804642
0.0
0.0
0.0
0.0
0.0
0.040772438049316406
-0.03611840307712555
-0.06601130962371826
0.0
0.0
0.0
0.0
0.0
0.027820130810141563
0.01212447602301836
0.03854844346642494
0.0
0.0
0.0
0.0
0.0
0.2633056640625
0.29605066776275635
0.3280656933784485
0.0
0.0
0.0
0.0
0.0
0.09588687121868134
0.16794359683990479
0.19225075840950012
0.0
0.0
0.0
0.0
0.0
-0.1503477245569229
-0.12890097498893738
-0.11266634613275528
0.0
0.0
0.0
0.0
0.0
-0.3021690249443054
-0.3539468050003052
-0.2737748920917511
0.0
0.0
0.0
0.0
0.0
-0.003880538046360016
-0.13870136439800262
-0.025676393881440163
0.0
0.0
0.0
0.0
0.0
0.2952660024166107
0.2879294753074646
0.2156195491552353
0.0
0.0
0.0
0.0
0.0
0.10766416043043137
0.18409909307956696
0.08770803362131119
0.0
0.0
0.0
0.0
0.0
-0.0948200449347496
-0.2319827824831009
-0.07630349695682526
0.0
0.0
0.0
0.0
0.0
-0.24770191311836243
-0.27907922863960266
-0.32175034284591675
0.0
0.0
0.0
0.0
0.0
-0.16443008184432983
-0.1367429792881012
-0.16242174804210663
0.0
0.0
0.0
0.0
0.0
0.2165752500295639
-0.0201101191341877
0.1238807737827301
0.0
0.0
0.0
0.0
0.0
0.08724541962146759
-0.03737812861800194
0.08838086575269699
0.0
0.0
0.0
0.0
0.0
-0.1700819730758667
-0.0988161489367485
-0.04519743099808693
0.0
0.0
0.0
0.0
0.0
-0.19701063632965088
-0.14505337178707123
-0.14005449414253235
0.0
0.0
0.0
0.0
0.0
-0.039104487746953964
-0.02446780726313591
-0.024138038977980614
0.0
0.0
0.0
0.0
0.0
0.017844848334789276
-0.2234179526567459
0.03138638287782669
0.0
0.0
0.0
0.0
0.0
0.04308824986219406
-0.11547877639532089
-0.10806818306446075
0.0
0.0
0.0
0.0
0.0
0.003726879134774208
-0.047351326793432236
-0.03436325117945671
0.0
0.0
0.0
0.0
0.0
-0.013979518786072731
0.0766780748963356
0.0911821499466896
0.0
0.0
0.0
0.0
0.0
0.07714395970106125
0.10444130003452301
0.11155813187360764
0.0
0.0
0.0
0.0
0.0
-0.218240886926651
-0.19551366567611694
-0.23401637375354767
0.0
0.0
0.0
0.0
0.0
-0.19957497715950012
-0.11590543389320374
-0.21389710903167725
0.0
0.0
0.0
0.0
0.0
-0.11412300169467926
-0.04444517195224762
-0.12396354228258133
0.0
0.0
0.0
0.0
0.0
-0.10159038752317429
-0.027600133791565895
-0.14604395627975464
0.0
0.0
0.0
0.0
0.0
-0.01682080328464508
-0.04810795187950134
-0.01029263436794281
0.0
0.0
0.0
0.0
0.0
-0.16054487228393555
0.10227031260728836
-0.16452853381633759
0.0
0.0
0.0
0.0
0.0
-0.0027204647194594145
0.2899065315723419
0.014024898409843445
0.0
0.0
0.0
0.0
0.0
-0.06494013220071793
0.28925690054893494
0.03701584413647652
0.0
0.0
0.0
0.0
0.0
-0.017982540652155876
0.14193248748779297
-0.13055089116096497
0.0
0.0
0.0
0.0
0.0
-0.208009272813797
0.0214687567204237
-0.0551636777818203
0.0
0.0
0.0
0.0
0.0
-0.05577225238084793
0.41071608662605286
-0.0655939057469368
0.0
0.0
0.0
0.0
0.0
0.044051337987184525
0.854545533657074
0.21697023510932922
0.0
0.0
0.0
0.0
0.0
0.06020325794816017
0.5617148280143738
0.1305142641067505
0.0
0.0
0.0
0.0
0.0
-0.026095489040017128
0.21170589327812195
0.0075342534109950066
0.0
0.0
0.0
0.0
0.0
-0.05417245998978615
-0.07802785187959671
-0.12783251702785492
0.0
0.0
0.0
0.0
0.0
-0.16023187339305878
0.4094841778278351
-0.2489967793226242
0.0
0.0
0.0
0.0
0.0
-0.021626414731144905
0.6885629892349243
0.12809862196445465
0.0
0.0
0.0
0.0
0.0
-0.06074807420372963
0.3631058633327484
0.042024366557598114
0.0
0.0
0.0
0.0
0.0
-0.04457465931773186
0.035840511322021484
-0.2365330308675766
0.0
0.0
0.0
0.0
0.0
-0.0054207127541303635
-0.05860930308699608
-0.17448094487190247
0.0
0.0
0.0
0.0
0.0
-0.33884504437446594
0.05756508186459541
-0.3997839093208313
0.0
0.0
0.0
0.0
0.0
-0.06775926053524017
0.30854883790016174
-0.15445859730243683
0.0
0.0
0.0
0.0
0.0
-0.08292531222105026
0.17447440326213837
-0.1693679839372635
0.0
0.0
0.0
0.0
0.0
-0.19521871209144592
-0.05250263959169388
-0.19520549476146698
0.0
0.0
0.0
0.0
0.0
-0.0927521213889122
0.05146476626396179
0.03700506314635277
0.0
0.0
0.0
0.0
0.0
0.09693858027458191
0.33750855922698975
0.222605898976326
0.0
0.0
0.0
0.0
0.0
0.006877194158732891
0.10460754483938217
-0.2559718191623688
0.0
0.0
0.0
0.0
0.0
0.16849389672279358
0.09476927667856216
0.03079068288207054
0.0
0.0
0.0
0.0
0.0
-0.22688744962215424
-0.33161771297454834
-0.37725719809532166
0.0
0.0
0.0
0.0
0.0
-0.48044297099113464
-0.02161012403666973
-0.07412070780992508
0.0
0.0
0.0
0.0
0.0
-0.15801741182804108
-0.2197769582271576
-0.29025760293006897
0.0
0.0
0.0
0.0
0.0
-0.1493605375289917
-0.22438646852970123
-0.372653990983963
0.0
0.0
0.0
0.0
0.0
-0.1388779580593109
0.06090778857469559
0.0732288807630539
0.0
0.0
0.0
0.0
0.0
-0.3998051583766937
-0.11885089427232742
-0.17765925824642181
0.0
0.0
0.0
0.0
0.0
-0.5864987969398499
-0.347928911447525
-0.18276244401931763
0.0
0.0
0.0
0.0
0.0
-0.2222275584936142
0.21105562150478363
-0.10170360654592514
0.0
0.0
0.0
0.0
0.0
-0.20210736989974976
0.012568674050271511
-0.034255847334861755
0.0
0.0
0.0
0.0
0.0
-0.0906703919172287
0.3962360620498657
0.10083109885454178
0.0
0.0
0.0
0.0
0.0
-0.3747733235359192
-0.16425003111362457
-0.11198017746210098
0.0
0.0
0.0
0.0
0.0
-0.17824803292751312
-0.022148260846734047
-0.17299559712409973
0.0
0.0
0.0
0.0
0.0
-0.048086877912282944
-0.21717999875545502
-0.4552976191043854
0.0
0.0
0.0
0.0
0.0
0.22486677765846252
-0.06859560310840607
-0.1899331510066986
0.0
0.0
0.0
0.0
0.0
0.21883143484592438
0.10291480273008347
0.14907263219356537
0.0
0.0
0.0
0.0
0.0
-0.028420425951480865
-0.1142616793513298
-0.11953535676002502
0.0
0.0
0.0
0.0
0.0
-0.20123009383678436
-0.1562572568655014
-0.15079772472381592
0.0
0.0
0.0
0.0
0.0
0.06681659817695618
-0.16012977063655853
-0.11484571546316147
0.0
0.0
0.0
0.0
0.0
0.1770079880952835
0.3379867374897003
0.010400044731795788
0.0
0.0
0.0
0.0
0.0
0.2888096868991852
0.18602332472801208
0.07123469561338425
0.0
0.0
0.0
0.0
0.0
0.01165324542671442
0.13696418702602386
0.16653533279895782
0.0
0.0
0.0
0.0
0.0
-0.1289752721786499
-0.04643166437745094
-0.03267710655927658
0.0
0.0
0.0
0.0
0.0
-0.23908235132694244
0.2126699537038803
0.08916814625263214
0.0
0.0
0.0
0.0
0.0
-0.2588805556297302
0.5086862444877625
-0.22032420337200165
0.0
0.0
0.0
0.0
0.0
-0.11067578196525574
0.29302364587783813
-0.19787149131298065
0.0
0.0
0.0
0.0
0.0
0.14350564777851105
-0.11096131801605225
-0.04213346913456917
0.0
0.0
0.0
0.0
0.0
0.3135083019733429
-0.2734415531158447
-0.04908587783575058
0.0
0.0
0.0
0.0
0.0
-0.24100922048091888
0.08010432869195938
0.005382189992815256
0.0
0.0
0.0
0.0
0.0
-0.06750065833330154
0.4674680829048157
0.28485602140426636
0.0
0.0
0.0
0.0
0.0
-0.3472362458705902
-0.09447282552719116
-0.33042505383491516
0.0
0.0
0.0
0.0
0.0
-0.13896030187606812
-0.1649356186389923
-0.16308839619159698
0.0
0.0
0.0
0.0
0.0
0.18475191295146942
-0.028135811910033226
-0.3546747863292694
0.0
0.0
0.0
0.0
0.0
-0.22267846763134003
-0.03136888146400452
-0.1234004870057106
0.0
0.0
0.0
0.0
0.0
-0.08280366659164429
-0.0033004791475832462
-0.2716251015663147
0.0
0.0
0.0
0.0
0.0
0.28623324632644653
-0.06608372926712036
-0.15169982612133026
0.0
0.0
0.0
0.0
0.0
-0.10214205831289291
0.337057501077652
-0.41592225432395935
0.0
0.0
0.0
0.0
0.0
-0.39145082235336304
0.06837587803602219
-0.07561540603637695
0.0
0.0
0.0
0.0
0.0
-0.10179466009140015
0.4112091064453125
-0.24520251154899597
0.0
0.0
0.0
0.0
0.0
0.18296803534030914
0.15126608312129974
-0.21633926033973694
0.0
0.0
0.0
0.0
0.0
0.31921446323394775
-0.3437578082084656
0.23781563341617584
0.0
0.0
0.0
0.0
0.0
-0.6463155150413513
0.0997547134757042
0.07571616768836975
0.0
0.0
0.0
0.0
0.0
-0.2775135040283203
-0.19505007565021515
0.3269084095954895
0.0
0.0
0.0
0.0
0.0
-0.20824140310287476
0.27091485261917114
-0.31457608938217163
0.0
0.0
0.0
0.0
0.0
-0.2405153214931488
0.021993907168507576
-0.22284579277038574
0.0
0.0
0.0
0.0
0.0
-0.23992015421390533
-0.27638405561447144
0.2054567039012909
0.0
0.0
0.0
0.0
0.0
-0.3160374164581299
0.03195642679929733
0.19519881904125214
0.0
0.0
0.0
0.0
0.0
-0.11098723113536835
-0.014924461953341961
0.20285063982009888
0.0
0.0
0.0
0.0
0.0
-0.0316939651966095
0.39846572279930115
-0.08466318249702454
0.0
0.0
0.0
0.0
0.0
-0.06623921543359756
-0.019325949251651764
0.02660052850842476
0.0
0.0
0.0
0.0
0.0
0.3116658329963684
-0.4636137783527374
0.2449972778558731
0.0
0.0
0.0
0.0
0.0
-0.027483349665999413
-0.14435578882694244
-0.16416439414024353
0.0
0.0
0.0
0.0
0.0
-0.4299388825893402
0.004998268559575081
-0.006865421310067177
0.0
0.0
0.0
0.0
0.0
-0.5034384727478027
0.3187199532985687
0.014759248122572899
0.0
0.0
0.0
0.0
0.0
-0.5120879411697388
0.20419718325138092
-0.06481536477804184
0.0
0.0
0.0
0.0
0.0
-0.12817609310150146
-0.06169189512729645
-0.2923825681209564
0.0
0.0
0.0
0.0
0.0
-0.22074313461780548
0.31220555305480957
-0.3838939070701599
0.0
0.0
0.0
0.0
0.0
-0.20264635980129242
0.44171735644340515
-0.14259791374206543
0.0
0.0
0.0
0.0
0.0
-0.30954092741012573
-0.4672844409942627
0.07841061055660248
0.0
0.0
0.0
0.0
0.0
-0.33090710639953613
0.10254916548728943
-0.06977798789739609
0.0
0.0
0.0
0.0
0.0
-0.3686547875404358
0.4302199184894562
-0.38734370470046997
0.0
0.0
0.0
0.0
0.0
0.10398425161838531
0.5229255557060242
-0.12852834165096283
0.0
0.0
0.0
0.0
0.0
0.24077436327934265
0.5130934119224548
0.11780432611703873
0.0
0.0
0.0
0.0
0.0
-0.016935817897319794
-0.35352495312690735
0.04456062242388725
0.0
0.0
0.0
0.0
0.0
-0.0021680432837456465
0.011480022221803665
0.1030898168683052
0.0
0.0
0.0
0.0
0.0
0.14932496845722198
-0.10680986195802689
0.06065288558602333
0.0
0.0
0.0
0.0
0.0
0.31616201996803284
0.252424418926239
-0.062155961990356445
0.0
0.0
0.0
0.0
0.0
-0.37453100085258484
-0.2697044909000397
-0.2847325801849365
0.0
0.0
0.0
0.0
0.0
-0.0011387490667402744
-0.06433218717575073
-0.05482487007975578
0.0
0.0
0.0
0.0
0.0
0.08036090433597565
0.36347371339797974
-0.0622568354010582
0.0
0.0
0.0
0.0
0.0
0.20372441411018372
0.06180109828710556
-0.06623023748397827
0.0
0.0
0.0
0.0
0.0
-0.268697589635849
-0.18800105154514313
-0.44468119740486145
0.0
0.0
0.0
0.0
0.0
-0.354108065366745
-0.5908327698707581
-0.22859328985214233
0.0
0.0
0.0
0.0
0.0
-0.1315569430589676
-0.02289302833378315
-0.11696203798055649
0.0
0.0
0.0
0.0
0.0
-0.11072076112031937
-0.20212747156620026
-0.14243638515472412
0.0
0.0
0.0
0.0
0.0
-0.2156432718038559
-0.03160099312663078
-0.14851021766662598
0.0
0.0
0.0
0.0
0.0
0.027717573568224907
0.11228742450475693
0.17933307588100433
0.0
0.0
0.0
0.0
0.0
-0.20251181721687317
-0.12792572379112244
-0.04542000591754913
0.0
0.0
0.0
0.0
0.0
-0.0038200621493160725
-0.04651564732193947
-0.10978426039218903
0.0
0.0
0.0
0.0
0.0
-0.1837032586336136
-0.09715260565280914
-0.10044200718402863
0.0
0.0
0.0
0.0
0.0
-0.11213677376508713
0.029898567125201225
0.01497963722795248
0.0
0.0
0.0
0.0
0.0
-0.2711871266365051
0.16027893126010895
0.2286643087863922
0.0
0.0
0.0
0.0
0.0
-0.2055947482585907
-0.18635882437229156
-0.07606305181980133
0.0
0.0
0.0
0.0
0.0
-0.01510694995522499
-0.13873957097530365
-0.007702155038714409
0.0
0.0
0.0
0.0
0.0
-0.05851779505610466
-0.005638626869767904
0.08445087820291519
0.0
0.0
0.0
0.0
0.0
-0.04102030023932457
0.02570030651986599
-0.007274648640304804
0.0
0.0
0.0
0.0
0.0
-0.07560938596725464
-0.17236414551734924
0.024250110611319542
0.0
0.0
0.0
0.0
0.0
-0.010555419139564037
-0.0947054922580719
-0.1462468057870865
0.0
0.0
0.0
0.0
0.0
-0.18177641928195953
-0.08808571845293045
-0.16319963335990906
0.0
0.0
0.0
0.0
0.0
-0.08946797251701355
-0.07532073557376862
-0.07798083126544952
0.0
0.0
0.0
0.0
0.0
-0.16757574677467346
0.08110921829938889
-0.0036261766217648983
0.0
0.0
0.0
0.0
0.0
-0.29043078422546387
0.010189409367740154
-0.0154582429677248
0.0
0.0
0.0
0.0
0.0
-0.15273436903953552
-0.15937526524066925
-0.038749586790800095
0.0
0.0
0.0
0.0
0.0
-0.07763919234275818
0.004050674848258495
-0.0626349002122879
0.0
0.0
0.0
0.0
0.0
0.057263199239969254
0.04154786467552185
-0.04867177456617355
0.0
0.0
0.0
0.0
0.0
-0.07421430200338364
0.13073231279850006
0.012193124741315842
0.0
0.0
0.0
0.0
0.0
-0.09757088124752045
0.0062072910368442535
-0.027227753773331642
0.0
0.0
0.0
0.0
0.0
-0.011151760816574097
-0.0268924031406641
-0.1978061944246292
0.0
0.0
0.0
0.0
0.0
0.015690667554736137
0.002349034184589982
-0.0013427872909232974
0.0
0.0
0.0
0.0
0.0
0.14490382373332977
0.012133653275668621
-0.09472779929637909
0.0
0.0
0.0
0.0
0.0
0.20975947380065918
-0.02461051195859909
-0.18567438423633575
0.0
0.0
0.0
0.0
0.0
0.07751213014125824
0.053821269422769547
-0.17134712636470795
0.0
0.0
0.0
0.0
0.0
0.05300569534301758
-0.024512333795428276
0.022406863048672676
0.0
0.0
0.0
0.0
0.0
0.08946676552295685
0.03788558766245842
-0.08403754234313965
0.0
0.0
0.0
0.0
0.0
0.18257711827754974
-0.03557591140270233
-0.10675089806318283
0.0
0.0
0.0
0.0
0.0
0.21948754787445068
0.02747669443488121
-0.2137945294380188
0.0
0.0
0.0
0.0
0.0
0.24802999198436737
-0.13283690810203552
-0.25708699226379395
0.0
0.0
0.0
0.0
0.0
0.08259236067533493
0.028063375502824783
-0.11857522279024124
0.0
0.0
0.0
0.0
0.0
0.14826160669326782
-0.025098005309700966
-0.1912303864955902
0.0
0.0
0.0
0.0
0.0
0.300110399723053
-0.0628751814365387
-0.21744182705879211
0.0
0.0
0.0
0.0
0.0
0.3427829444408417
0.03218860179185867
-0.1444908231496811
0.0
0.0
0.0
0.0
0.0
0.20498552918434143
-0.025527166202664375
-0.11559700220823288
0.0
0.0
0.0
0.0
0.0
0.10103011131286621
-0.005012582056224346
-0.0977335050702095
0.0
0.0
0.0
0.0
0.0
0.040901001542806625
0.005539231933653355
-0.21857081353664398
0.0
0.0
0.0
0.0
0.0
0.089576356112957
-0.02695450559258461
-0.10173362493515015
0.0
0.0
0.0
0.0
0.0
0.23879402875900269
0.01558482926338911
-0.11562786251306534
0.0
0.0
0.0
0.0
0.0
0.1347758024930954
-0.04877808317542076
-0.1837931126356125
0.0
0.0
0.0
0.0
0.0
0.10033084452152252
-0.04125739261507988
-0.031678859144449234
0.0
0.0
0.0
0.0
0.0
0.031240273267030716
0.0070211137644946575
0.02622685208916664
0.0
0.0
0.0
0.0
0.0
-0.10878515988588333
0.0676431730389595
-0.10594718158245087
0.0
0.0
0.0
0.0
0.0
-0.008793110959231853
0.1297433078289032
-0.05121907219290733
0.0
0.0
0.0
0.0
0.0
-0.017801253125071526
0.08581416308879852
-0.06825332343578339
0.0
0.0
0.0
0.0
0.0
-0.04479575529694557
0.006595396436750889
-0.09428371489048004
0.0
0.0
0.0
0.0
0.0
-0.0697365254163742
0.1418631225824356
0.08808619529008865
0.0
0.0
0.0
0.0
0.0
-0.17593547701835632
0.017915451899170876
-0.006899266038089991
0.0
0.0
0.0
0.0
0.0
-0.24106837809085846
-0.2806727886199951
0.020658303052186966
0.0
0.0
0.0
0.0
0.0
-0.04832669720053673
-0.2231532484292984
-0.009266396053135395
0.0
0.0
0.0
0.0
0.0
0.01870800368487835
-0.16561484336853027
0.018580323085188866
0.0
0.0
0.0
0.0
0.0
-0.09307269752025604
-0.12013890594244003
-0.012859963811933994
0.0
0.0
0.0
0.0
0.0
0.12990278005599976
-0.06178098917007446
0.1005464494228363
0.0
0.0
0.0
0.0
0.0
-0.16100618243217468
-0.3215271532535553
-0.09158354997634888
0.0
0.0
0.0
0.0
0.0
-0.11769340187311172
-0.4002797305583954
-0.10220020264387131
0.0
0.0
0.0
0.0
0.0
0.3766595721244812
0.03640307858586311
0.17349280416965485
0.0
0.0
0.0
0.0
0.0
0.06302835047245026
-0.43391382694244385
-0.07274065166711807
0.0
0.0
0.0
0.0
0.0
0.09270178526639938
-0.30452361702919006
-0.055739257484674454
0.0
0.0
0.0
0.0
0.0
0.08037253469228745
-0.23031778633594513
-0.12446154654026031
0.0
0.0
0.0
0.0
0.0
0.19110387563705444
-0.35199153423309326
-0.1637854278087616
0.0
0.0
0.0
0.0
0.0
0.33666741847991943
-0.012353956699371338
0.05580047518014908
0.0
0.0
0.0
0.0
0.0
-0.1978176087141037
-0.12862686812877655
0.17089521884918213
0.0
0.0
0.0
0.0
0.0
-0.0020929579623043537
-0.09392865747213364
0.11911599338054657
0.0
0.0
0.0
0.0
0.0
-0.2054978758096695
-0.408939391374588
0.0016005205688998103
0.0
0.0
0.0
0.0
0.0
-0.22659532725811005
-0.42858314514160156
-0.162074476480484
0.0
0.0
0.0
0.0
0.0
-0.1668388843536377
-0.23354217410087585
0.10091409087181091
0.0
0.0
0.0
0.0
0.0
-0.11520642042160034
-0.15268340706825256
0.06732779741287231
0.0
0.0
0.0
0.0
0.0
-0.19046418368816376
-0.2761637568473816
0.2058868110179901
0.0
0.0
0.0
0.0
0.0
-0.09624281525611877
-0.11648634076118469
0.23849539458751678
0.0
0.0
0.0
0.0
0.0
-0.014497914351522923
-0.04158112779259682
0.11042549461126328
0.0
0.0
0.0
0.0
0.0
-0.20616932213306427
-0.21977899968624115
-0.014277770183980465
0.0
0.0
0.0
0.0
0.0
0.04096196964383125
-0.4675460159778595
0.1236882209777832
0.0
0.0
0.0
0.0
0.0
0.0764906257390976
-0.6197177767753601
0.28466907143592834
0.0
0.0
0.0
0.0
0.0
0.028557613492012024
-0.2439306229352951
0.13739383220672607
0.0
0.0
0.0
0.0
0.0
0.382514089345932
-0.09657743573188782
0.14435894787311554
0.0
0.0
0.0
0.0
0.0
0.13632245361804962
-0.180080845952034
0.08303175866603851
0.0
0.0
0.0
0.0
0.0
0.14809150993824005
-0.49778297543525696
0.3155354857444763
0.0
0.0
0.0
0.0
0.0
-0.04106826335191727
-0.4183899164199829
0.4359499514102936
0.0
0.0
0.0
0.0
0.0
-0.11289027333259583
-0.4574294686317444
0.10698419064283371
0.0
0.0
0.0
0.0
0.0
0.3705123960971832
-0.1257946491241455
-0.026460014283657074
0.0
0.0
0.0
0.0
0.0
0.4817959666252136
-0.17638102173805237
-0.15042191743850708
0.0
0.0
0.0
0.0
0.0
-0.2843495309352875
0.3550761044025421
-0.2119590938091278
0.0
0.0
0.0
0.0
0.0
-0.1581544429063797
0.09312273561954498
-0.08727920055389404
0.0
0.0
0.0
0.0
0.0
-0.015377029776573181
-0.1562773585319519
-0.09156496077775955
0.0
0.0
0.0
0.0
0.0
-0.12118813395500183
-0.19981104135513306
-0.3333129286766052
0.0
0.0
0.0
0.0
0.0
0.2702445089817047
-0.24782143533229828
-0.13016679883003235
0.0
0.0
0.0
0.0
0.0
-0.5368525385856628
0.6321854591369629
-0.29731130599975586
0.0
0.0
0.0
0.0
0.0
-0.21347680687904358
0.256663054227829
-0.4759121835231781
0.0
0.0
0.0
0.0
0.0
-0.16710995137691498
0.1351584941148758
-0.2154541164636612
0.0
0.0
0.0
0.0
0.0
-0.34633156657218933
0.004998792894184589
-0.20353856682777405
0.0
0.0
0.0
0.0
0.0
-0.1461886465549469
-0.25130319595336914
-0.3497302830219269
0.0
0.0
0.0
0.0
0.0
-0.2672131061553955
0.4930053651332855
-0.3726585805416107
0.0
0.0
0.0
0.0
0.0
-0.14329612255096436
0.25922268629074097
-0.21585580706596375
0.0
0.0
0.0
0.0
0.0
-0.03598863258957863
0.12904584407806396
-0.10197848081588745
0.0
0.0
0.0
0.0
0.0
-0.20209994912147522
-0.03794531896710396
-0.01999731734395027
0.0
0.0
0.0
0.0
0.0
-0.2631525695323944
0.07538279891014099
-0.2773350179195404
0.0
0.0
0.0
0.0
0.0
-0.005445987917482853
0.20087175071239471
0.23688873648643494
0.0
0.0
0.0
0.0
0.0
-0.35014939308166504
-0.13994424045085907
-0.15084430575370789
0.0
0.0
0.0
0.0
0.0
-0.6192873120307922
-0.32076409459114075
-0.5139158964157104
0.0
0.0
0.0
0.0
0.0
-0.359823614358902
-0.22645871341228485
-0.34295371174812317
0.0
0.0
0.0
0.0
0.0
-0.3754759728908539
-0.34648311138153076
-0.5203877687454224
0.0
0.0
0.0
0.0
0.0
-0.024019340053200722
0.14423060417175293
0.17060159146785736
0.0
0.0
0.0
0.0
0.0
-0.7372649312019348
-0.34008848667144775
-0.6191851496696472
0.0
0.0
0.0
0.0
0.0
-0.9942935705184937
-0.46959638595581055
-0.4423094093799591
0.0
0.0
0.0
0.0
0.0
-0.669963538646698
-0.5065352320671082
-0.4035337269306183
0.0
0.0
0.0
0.0
0.0
-0.44450488686561584
-0.2047334909439087
-0.39770352840423584
0.0
0.0
0.0
0.0
0.0
0.1674746423959732
0.18595509231090546
0.11528684943914413
0.0
0.0
0.0
0.0
0.0
-0.6894538402557373
-0.761465311050415
-0.7192370295524597
0.0
0.0
0.0
0.0
0.0
-1.5498597621917725
-0.7602072954177856
-1.0921218395233154
0.0
0.0
0.0
0.0
0.0
-1.1165179014205933
-0.8163548111915588
-1.020292043685913
0.0
0.0
0.0
0.0
0.0
-0.8077517747879028
-0.803117573261261
-0.8317221403121948
0.0
0.0
0.0
0.0
0.0
0.1365559846162796
0.24408559501171112
0.19901132583618164
0.0
0.0
0.0
0.0
0.0
-0.03154180943965912
-0.06804514676332474
-0.09572096168994904
0.0
0.0
0.0
0.0
0.0
-0.8051173090934753
-0.6178262233734131
-0.7377707958221436
0.0
0.0
0.0
0.0
0.0
-0.7204405069351196
-0.4083060622215271
-0.5767583250999451
0.0
0.0
0.0
0.0
0.0
0.01142942439764738
0.03972884640097618
0.08321145176887512
0.0
0.0
0.0
0.0
0.0
0.16665911674499512
0.08022578060626984
0.20506274700164795
0.0
0.0
0.0
0.0
0.0
0.22338955104351044
0.10956121236085892
0.1957753449678421
0.0
0.0
0.0
0.0
0.0
0.18488454818725586
0.1492200493812561
0.2587474584579468
0.0
0.0
0.0
0.0
0.0
0.23472443222999573
0.10397323966026306
0.3137420117855072
0.0
0.0
0.0
0.0
0.0
0.11900874972343445
0.12374551594257355
0.27624258399009705
0.0
0.0
0.0
0.0
0.0
0.3338751196861267
0.09254643321037292
0.2415533810853958
0.0
0.0
0.0
0.0
0.0
0.3289322853088379
0.21820168197155
0.2979638874530792
0.0
0.0
0.0
0.0
0.0
0.15590719878673553
-0.017169835045933723
0.23677457869052887
0.0
0.0
0.0
0.0
0.0
0.11657055467367172
0.04626466706395149
0.19384564459323883
0.0
0.0
0.0
0.0
0.0
-0.02331884205341339
0.20636571943759918
0.1766882836818695
0.0
0.0
0.0
0.0
0.0
0.3004884421825409
0.2758931517601013
0.3357078731060028
0.0
0.0
0.0
0.0
0.0
-0.14678847789764404
-0.1914447844028473
-0.03442668169736862
0.0
0.0
0.0
0.0
0.0
-0.682398796081543
-0.6205043196678162
-0.5845566391944885
0.0
0.0
0.0
0.0
0.0
-0.6153594255447388
-0.4707490801811218
-0.47396522760391235
0.0
0.0
0.0
0.0
0.0
-0.13482718169689178
-0.05748983472585678
-0.13488079607486725
0.0
0.0
0.0
0.0
0.0
0.02354973554611206
-0.013565205037593842
0.07902348786592484
0.0
0.0
0.0
0.0
0.0
-1.1999496221542358
-1.2997267246246338
-0.9874339699745178
0.0
0.0
0.0
0.0
0.0
-1.0201715230941772
-0.6305782794952393
-1.1581679582595825
0.0
0.0
0.0
0.0
0.0
-0.9331271052360535
-0.347870796918869
-0.9169028997421265
0.0
0.0
0.0
0.0
0.0
-0.811750054359436
-0.6164903044700623
-1.2146152257919312
0.0
0.0
0.0
0.0
0.0
-0.33937689661979675
-0.0531848780810833
0.011262002401053905
0.0
0.0
0.0
0.0
0.0
-0.7217478156089783
0.7035702466964722
-0.7450262308120728
0.0
0.0
0.0
0.0
0.0
-0.453722208738327
-0.20078857243061066
-0.4616536498069763
0.0
0.0
0.0
0.0
0.0
-0.8390671014785767
-0.3092934191226959
-0.6628472805023193
0.0
0.0
0.0
0.0
0.0
-0.24470821022987366
-0.18572893738746643
-0.3564307987689972
0.0
0.0
0.0
0.0
0.0
-0.5041420459747314
-0.4198164641857147
-0.34927818179130554
0.0
0.0
0.0
0.0
0.0
-0.3039848208427429
0.5880140662193298
-0.7073544859886169
0.0
0.0
0.0
0.0
0.0
-0.276776522397995
-0.003004052909091115
-0.5893312096595764
0.0
0.0
0.0
0.0
0.0
-0.1937471628189087
-0.3198889195919037
-0.2959470748901367
0.0
0.0
0.0
0.0
0.0
0.2958157956600189
0.18435093760490417
0.037723246961832047
0.0
0.0
0.0
0.0
0.0
-0.07760748267173767
0.1991085261106491
-0.2918127477169037
0.0
0.0
0.0
0.0
0.0
-0.22544875741004944
0.17644451558589935
-0.4234462380409241
0.0
0.0
0.0
0.0
0.0
-0.19688761234283447
0.18596279621124268
-0.3163449764251709
0.0
0.0
0.0
0.0
0.0
-0.17815877497196198
0.0702294260263443
-0.3698923587799072
0.0
0.0
0.0
0.0
0.0
-0.034345593303442
0.08335554599761963
-0.13072504103183746
0.0
0.0
0.0
0.0
0.0
-0.23414014279842377
0.12942464649677277
-0.2871568202972412
0.0
0.0
0.0
0.0
0.0
-0.1932915598154068
0.16979250311851501
-0.3832457363605499
0.0
0.0
0.0
0.0
0.0
-0.07694176584482193
0.2554951310157776
-0.2148139774799347
0.0
0.0
0.0
0.0
0.0
-0.09259924292564392
0.1906040459871292
-0.23608027398586273
0.0
0.0
0.0
0.0
0.0
-0.05444485321640968
0.139221653342247
-0.11323733627796173
0.0
0.0
0.0
0.0
0.0
-0.4100922644138336
0.0004938843194395304
-0.009493505582213402
0.0
0.0
0.0
0.0
0.0
-0.17852944135665894
0.18159973621368408
-0.21813242137432098
0.0
0.0
0.0
0.0
0.0
0.08959613740444183
0.30503368377685547
-0.19961445033550262
0.0
0.0
0.0
0.0
0.0
0.00571809196844697
0.2165824919939041
-0.14168508350849152
0.0
0.0
0.0
0.0
0.0
-0.05320507660508156
0.10781829804182053
-0.04838164895772934
0.0
0.0
0.0
0.0
0.0
-0.37248560786247253
0.2671217620372772
-0.28633779287338257
0.0
0.0
0.0
0.0
0.0
-0.2965552508831024
0.2912382185459137
-0.21373799443244934
0.0
0.0
0.0
0.0
0.0
-0.17935502529144287
0.4067727327346802
-0.1362435519695282
0.0
0.0
0.0
0.0
0.0
-0.1744670569896698
0.33168137073516846
-0.07214315235614777
0.0
0.0
0.0
0.0
0.0
-0.12629157304763794
0.20248104631900787
-0.054753776639699936
0.0
0.0
0.0
0.0
0.0
-0.22748830914497375
-0.01542302593588829
-0.23439818620681763
0.0
0.0
0.0
0.0
0.0
-0.34673771262168884
-0.18114294111728668
-0.17844392359256744
0.0
0.0
0.0
0.0
0.0
-0.5620445609092712
-0.18829840421676636
-0.1297944188117981
0.0
0.0
0.0
0.0
0.0
-0.4605729579925537
0.05570729821920395
-0.10332350432872772
0.0
0.0
0.0
0.0
0.0
-0.22541293501853943
0.05172089859843254
-0.19249992072582245
0.0
0.0
0.0
0.0
0.0
-0.3867732882499695
-0.11326548457145691
-0.38624048233032227
0.0
0.0
0.0
0.0
0.0
-0.2876245379447937
0.11371718347072601
0.1405777484178543
0.0
0.0
0.0
0.0
0.0
0.04845799133181572
-0.1400856375694275
0.19286976754665375
0.0
0.0
0.0
0.0
0.0
0.13874909281730652
-0.25584787130355835
0.10773740708827972
0.0
0.0
0.0
0.0
0.0
0.07295013964176178
-0.07500077784061432
-0.04203673079609871
0.0
0.0
0.0
0.0
0.0
-0.40048226714134216
0.1783193051815033
-0.5009945034980774
0.0
0.0
0.0
0.0
0.0
-0.07491537183523178
0.08470474928617477
0.22309552133083344
0.0
0.0
0.0
0.0
0.0
0.4380265176296234
0.09300626069307327
0.49975332617759705
0.0
0.0
0.0
0.0
0.0
-0.20528391003608704
-0.0824514701962471
-0.03975078836083412
0.0
0.0
0.0
0.0
0.0
-0.20967239141464233
-0.013500281609594822
-0.00521868048235774
0.0
0.0
0.0
0.0
0.0
-0.15503785014152527
0.07610765844583511
-0.1690811961889267
0.0
0.0
0.0
0.0
0.0
-0.24226070940494537
0.00042722257785499096
-0.12919698655605316
0.0
0.0
0.0
0.0
0.0
-0.29898080229759216
-0.028099656105041504
0.18778735399246216
0.0
0.0
0.0
0.0
0.0
-0.2482500970363617
-0.24902376532554626
-0.05751170217990875
0.0
0.0
0.0
0.0
0.0
0.04323606565594673
-0.04189975932240486
0.11458170413970947
0.0
0.0
0.0
0.0
0.0
0.2079717069864273
-0.09915560483932495
0.1403767466545105
0.0
0.0
0.0
0.0
0.0
-0.549323320388794
-0.4087182581424713
-0.3375987112522125
0.0
0.0
0.0
0.0
0.0
-0.3033638298511505
-0.33583226799964905
-0.49404677748680115
0.0
0.0
0.0
0.0
0.0
-0.3038666248321533
-0.4730757176876068
-0.41515326499938965
0.0
0.0
0.0
0.0
0.0
0.4996849000453949
0.1937541365623474
0.4369400143623352
0.0
0.0
0.0
0.0
0.0
0.4498298764228821
0.169282004237175
0.46791890263557434
0.0
0.0
0.0
0.0
0.0
0.024180246517062187
-0.05162718519568443
0.059203922748565674
0.0
0.0
0.0
0.0
0.0
-0.646926760673523
-0.911016047000885
-0.465328574180603
0.0
0.0
0.0
0.0
0.0
0.020759865641593933
-0.1384822428226471
-0.006023257505148649
0.0
0.0
0.0
0.0
0.0
0.342831015586853
0.12804833054542542
0.2190406769514084
0.0
0.0
0.0
0.0
0.0
0.24735663831233978
-0.09249988198280334
-0.1187157928943634
0.0
0.0
0.0
0.0
0.0
0.37505272030830383
-0.22544163465499878
-0.009508877992630005
0.0
0.0
0.0
0.0
0.0
0.2542097568511963
-0.3294680714607239
-0.17416292428970337
0.0
0.0
0.0
0.0
0.0
-0.01826595515012741
-0.15007327497005463
-0.0027693428564816713
0.0
0.0
0.0
0.0
0.0
-0.09863686561584473
-0.2767355442047119
-0.15270604193210602
0.0
0.0
0.0
0.0
0.0
0.3684457242488861
-0.31618329882621765
-0.19409792125225067
0.0
0.0
0.0
0.0
0.0
0.24016979336738586
-0.46336629986763
-0.4380228519439697
0.0
0.0
0.0
0.0
0.0
0.011456632986664772
-0.7306376099586487
-0.30024003982543945
0.0
0.0
0.0
0.0
0.0
-0.19176073372364044
-0.48489856719970703
0.08568847179412842
0.0
0.0
0.0
0.0
0.0
-0.32118502259254456
-0.3767131567001343
-0.4514238238334656
0.0
0.0
0.0
0.0
0.0
0.19005464017391205
-0.5714983940124512
-0.163532555103302
0.0
0.0
0.0
0.0
0.0
-0.02260386012494564
-0.9041653275489807
-0.1459616869688034
0.0
0.0
0.0
0.0
0.0
-0.08720242232084274
-0.38584449887275696
0.27434128522872925
0.0
0.0
0.0
0.0
0.0
-0.544284462928772
-0.5077122449874878
-0.5801739692687988
0.0
0.0
0.0
0.0
0.0
-0.2159130722284317
-0.14073283970355988
-0.1497621387243271
0.0
0.0
0.0
0.0
0.0
0.15494278073310852
-0.31289613246917725
-0.2357303947210312
0.0
0.0
0.0
0.0
0.0
-0.08754830807447433
-0.36330047249794006
-0.08777432888746262
0.0
0.0
0.0
0.0
0.0
-0.7142450213432312
-0.5229874849319458
-0.6375789642333984
0.0
0.0
0.0
0.0
0.0
-0.5639790892601013
-0.8659605979919434
-0.8341397047042847
0.0
0.0
0.0
0.0
0.0
0.26597729325294495
0.12898193299770355
0.1603400558233261
0.0
0.0
0.0
0.0
0.0
0.27102717757225037
0.03780941665172577
-0.2852846682071686
0.0
0.0
0.0
0.0
0.0
-0.30424582958221436
-0.3458687663078308
-0.5114717483520508
0.0
0.0
0.0
0.0
0.0
-0.2861070930957794
-0.20135577023029327
-0.16202577948570251
0.0
0.0
0.0
0.0
0.0
0.13993248343467712
0.06211860105395317
0.1689860075712204
0.0
0.0
0.0
0.0
0.0
0.36095404624938965
0.3900294601917267
0.345025897026062
0.0
0.0
0.0
0.0
0.0
-0.009209313429892063
0.055378880351781845
-0.024841906502842903
0.0
0.0
0.0
0.0
0.0
0.0034009888768196106
0.09568045288324356
0.05689326673746109
0.0
0.0
0.0
0.0
0.0
-0.05869634076952934
0.1348382830619812
0.04208938404917717
0.0
0.0
0.0
0.0
0.0
0.07517243921756744
0.19717608392238617
0.07596225291490555
0.0
0.0
0.0
0.0
0.0
0.046720195561647415
0.16506841778755188
-0.12262055277824402
0.0
0.0
0.0
0.0
0.0
-0.08066543191671371
-0.061497967690229416
-0.03981275111436844
0.0
0.0
0.0
0.0
0.0
-0.16500361263751984
-0.07839442044496536
-0.17236188054084778
0.0
0.0
0.0
0.0
0.0
-0.21865975856781006
-0.11962893605232239
-0.15412871539592743
0.0
0.0
0.0
0.0
0.0
0.03199067711830139
0.14660732448101044
-0.02250984124839306
0.0
0.0
0.0
0.0
0.0
0.10141198337078094
0.329691082239151
0.10827028751373291
0.0
0.0
0.0
0.0
0.0
-0.06247074156999588
-0.07724088430404663
0.06204839050769806
0.0
0.0
0.0
0.0
0.0
-0.1999548226594925
-0.25281453132629395
-0.2356044352054596
0.0
0.0
0.0
0.0
0.0
-0.3171728849411011
-0.44091275334358215
-0.3774610161781311
0.0
0.0
0.0
0.0
0.0
-0.09004846960306168
0.03962113708257675
0.03865595906972885
0.0
0.0
0.0
0.0
0.0
0.18729950487613678
0.4422982931137085
0.21684664487838745
0.0
0.0
0.0
0.0
0.0
-0.06647410988807678
-0.005475343205034733
0.008693983778357506
0.0
0.0
0.0
0.0
0.0
-0.029694829136133194
-0.25048866868019104
-0.06912849098443985
0.0
0.0
0.0
0.0
0.0
-0.1684267520904541
-0.24256040155887604
-0.11239930242300034
0.0
0.0
0.0
0.0
0.0
0.0307465810328722
-0.0033705239184200764
-0.06261623650789261
0.0
0.0
0.0
0.0
0.0
0.3021935522556305
0.3083377182483673
0.2613547146320343
0.0
0.0
0.0
0.0
0.0
0.03926917165517807
0.01920689269900322
0.03191140666604042
0.0
0.0
0.0
0.0
0.0
-0.09060534834861755
-0.061451543122529984
0.1340324878692627
0.0
0.0
0.0
0.0
0.0
0.047230884432792664
0.05071694776415825
-0.012588915415108204
0.0
0.0
0.0
0.0
0.0
0.1713663935661316
0.0933951586484909
-0.019273776561021805
0.0
0.0
0.0
0.0
0.0
0.16687683761119843
0.030896618962287903
0.02600155398249626
0.0
0.0
0.0
0.0
0.0
-0.07571727782487869
0.07356928288936615
-0.036696288734674454
0.0
0.0
0.0
0.0
0.0
0.08326952904462814
-0.11420872807502747
-0.2918950021266937
0.0
0.0
0.0
0.0
0.0
-0.021469609811902046
0.005715449806302786
-0.1480722427368164
0.0
0.0
0.0
0.0
0.0
-0.09166573733091354
-0.004663929343223572
-0.04388280212879181
0.0
0.0
0.0
0.0
0.0
-0.029856381937861443
0.006335689220577478
0.05329181253910065
0.0
0.0
0.0
0.0
0.0
0.003112212987616658
-0.1177469789981842
-0.07624632120132446
0.0
0.0
0.0
0.0
0.0
-0.2763376235961914
-0.23225511610507965
-0.09350115060806274
0.0
0.0
0.0
0.0
0.0
-0.2841384708881378
-0.18816262483596802
-0.20198599994182587
0.0
0.0
0.0
0.0
0.0
-0.0722149983048439
-0.02501661516726017
0.051149699836969376
0.0
0.0
0.0
0.0
0.0
0.0752963051199913
0.12044467031955719
0.08872579783201218
0.0
0.0
0.0
0.0
0.0
0.1094435602426529
0.06364749372005463
0.17744621634483337
0.0
0.0
0.0
0.0
0.0
-0.060879435390233994
-0.022768286988139153
0.04477923735976219
0.0
0.0
0.0
0.0
0.0
-0.19122639298439026
-0.21834416687488556
-0.23991115391254425
0.0
0.0
0.0
0.0
0.0
-0.043388981372117996
-0.21268701553344727
-0.005425815470516682
0.0
0.0
0.0
0.0
0.0
0.15200194716453552
-0.05432165414094925
0.08303463459014893
0.0
0.0
0.0
0.0
0.0
0.36006709933280945
0.26788708567619324
0.3757677674293518
0.0
0.0
0.0
0.0
0.0
0.27544495463371277
0.09674014896154404
0.24504797160625458
0.0
0.0
0.0
0.0
0.0
-0.015621460974216461
-0.13619768619537354
0.14207661151885986
0.0
0.0
0.0
0.0
0.0
0.12284265458583832
-0.19424961507320404
0.07278615236282349
0.0
0.0
0.0
0.0
0.0
0.04605424404144287
-0.13167178630828857
-0.02441543899476528
0.0
0.0
0.0
0.0
0.0
0.14119544625282288
-0.02526610717177391
0.135782852768898
0.0
0.0
0.0
0.0
0.0
0.2953813374042511
0.013132182881236076
0.2093973159790039
0.0
0.0
0.0
0.0
0.0
0.14165732264518738
-0.2535075843334198
0.17779114842414856
0.0
0.0
0.0
0.0
0.0
0.059942275285720825
-0.19273242354393005
-0.045225199311971664
0.0
0.0
0.0
0.0
0.0
0.18342052400112152
0.0035752765834331512
0.05601349100470543
0.0
0.0
0.0
0.0
0.0
0.33621102571487427
-0.16605868935585022
-0.05051935091614723
0.0
0.0
0.0
0.0
0.0
0.26911869645118713
-0.18950746953487396
0.19741131365299225
0.0
0.0
0.0
0.0
0.0
0.07030835002660751
-0.18207454681396484
0.04692612960934639
0.0
0.0
0.0
0.0
0.0
0.09797266125679016
-0.199344664812088
0.1830620914697647
0.0
0.0
0.0
0.0
0.0
0.3975362181663513
-0.4778326451778412
0.5116313099861145
0.0
0.0
0.0
0.0
0.0
-0.07541344314813614
-0.16139881312847137
-0.3718340992927551
0.0
0.0
0.0
0.0
0.0
0.05568159371614456
-0.1437830924987793
-0.1770826131105423
0.0
0.0
0.0
0.0
0.0
-0.2807408273220062
0.13666938245296478
-0.16888859868049622
0.0
0.0
0.0
0.0
0.0
-0.11793075501918793
-0.37905365228652954
0.09964045137166977
0.0
0.0
0.0
0.0
0.0
0.33962905406951904
-0.7130083441734314
0.44663599133491516
0.0
0.0
0.0
0.0
0.0
0.0012534119887277484
-0.3744925856590271
0.07347731292247772
0.0
0.0
0.0
0.0
0.0
-0.3262726962566376
-0.11149302124977112
0.1676032990217209
0.0
0.0
0.0
0.0
0.0
-0.4059021472930908
0.20452426373958588
-0.20835745334625244
0.0
0.0
0.0
0.0
0.0
0.03932436555624008
-0.03693912923336029
-0.16132347285747528
0.0
0.0
0.0
0.0
0.0
-0.05767764896154404
-0.4886555075645447
0.23469477891921997
0.0
0.0
0.0
0.0
0.0
-0.03811579942703247
-0.1251414269208908
0.010449551977217197
0.0
0.0
0.0
0.0
0.0
-0.37849533557891846
0.1754523664712906
-0.17271173000335693
0.0
0.0
0.0
0.0
0.0
-0.09687202423810959
0.06873375177383423
-0.28322261571884155
0.0
0.0
0.0
0.0
0.0
0.04888225346803665
0.20303596556186676
-0.20681673288345337
0.0
0.0
0.0
0.0
0.0
-0.009057092480361462
-0.26439425349235535
0.35573843121528625
0.0
0.0
0.0
0.0
0.0
0.2908894717693329
-0.29641231894493103
0.2501290738582611
0.0
0.0
0.0
0.0
0.0
0.06976036727428436
0.25192341208457947
-0.14101357758045197
0.0
0.0
0.0
0.0
0.0
-0.1296345442533493
0.41535475850105286
-0.13947607576847076
0.0
0.0
0.0
0.0
0.0
-0.14150851964950562
0.23034250736236572
-0.5856894850730896
0.0
0.0
0.0
0.0
0.0
-0.0937063917517662
-0.30098146200180054
-0.12044564634561539
0.0
0.0
0.0
0.0
0.0
-0.8447064757347107
-0.04255855828523636
0.8750879764556885
0.0
0.0
0.0
0.0
0.0
-0.9901903867721558
0.050608765333890915
-0.024917304515838623
0.0
0.0
0.0
0.0
0.0
-0.7171452641487122
0.3016420006752014
-0.6027766466140747
0.0
0.0
0.0
0.0
0.0
-0.3548271358013153
-0.3824509084224701
-0.3827899992465973
0.0
0.0
0.0
0.0
0.0
-0.5409179329872131
-0.8097032904624939
-0.6143476366996765
0.0
0.0
0.0
0.0
0.0
0.7227247953414917
-1.040388822555542
-0.4372898042201996
0.0
0.0
0.0
0.0
0.0
-0.19785158336162567
0.3729788064956665
0.1949562430381775
0.0
0.0
0.0
0.0
0.0
-0.10086521506309509
-0.08791652321815491
0.019941873848438263
0.0
0.0
0.0
0.0
0.0
0.25813060998916626
-0.4779520630836487
-0.4278810918331146
0.0
0.0
0.0
0.0
0.0
0.6055508852005005
-0.30643951892852783
-0.1360151767730713
0.0
0.0
0.0
0.0
0.0
-0.46314990520477295
-0.3485821783542633
0.37170276045799255
0.0
0.0
0.0
0.0
0.0
0.17533491551876068
0.2701781392097473
0.4594621956348419
0.0
0.0
0.0
0.0
0.0
0.5706068873405457
-0.431934118270874
-0.7609433531761169
0.0
0.0
0.0
0.0
0.0
-0.16951414942741394
0.22050316631793976
-0.49762895703315735
0.0
0.0
0.0
0.0
0.0
-0.5979000329971313
-0.48487189412117004
-0.3765972852706909
0.0
0.0
0.0
0.0
0.0
-0.7132237553596497
-0.6889967322349548
-0.09362157434225082
0.0
0.0
0.0
0.0
0.0
0.2067345380783081
-0.1889154314994812
0.7067269086837769
0.0
0.0
0.0
0.0
0.0
-0.19058452546596527
-0.15064120292663574
0.16994552314281464
0.0
0.0
0.0
0.0
0.0
-0.5834580063819885
-0.9133535623550415
-0.5046528577804565
0.0
0.0
0.0
0.0
0.0
0.6199601888656616
1.4450589418411255
0.6084656715393066
0.0
0.0
0.0
0.0
0.0
-0.14725811779499054
-0.4578765034675598
0.32871508598327637
0.0
0.0
0.0
0.0
0.0
0.060524046421051025
0.018296802416443825
-0.18925665318965912
0.0
0.0
0.0
0.0
0.0
-0.0948028638958931
-0.12795324623584747
-0.056614652276039124
0.0
0.0
0.0
0.0
0.0
-0.4042426645755768
0.4721149504184723
-0.1633148044347763
0.0
0.0
0.0
0.0
0.0
0.18799526989459991
-0.19584403932094574
0.3594706058502197
0.0
0.0
0.0
0.0
0.0
0.025981206446886063
-0.10265175253152847
-0.2333011031150818
0.0
0.0
0.0
0.0
0.0
-0.5247507095336914
0.19724717736244202
-0.27617642283439636
0.0
0.0
0.0
0.0
0.0
1.0496809482574463
0.4828372299671173
0.5454761981964111
0.0
0.0
0.0
0.0
0.0
-0.9248987436294556
-0.88972008228302
-0.19223295152187347
0.0
0.0
0.0
0.0
0.0
0.23861412703990936
-1.1420305967330933
0.6630802750587463
0.0
0.0
0.0
0.0
0.0
-0.24268180131912231
-0.8411374092102051
-0.6660003662109375
0.0
0.0
0.0
0.0
0.0
-0.041421111673116684
-0.5240795612335205
-0.6110358834266663
0.0
0.0
0.0
0.0
0.0